#pragma once
#include <cstdarg>
namespace Eloquent {
    namespace ML {
        namespace Port {
            class RandomForest {
                public:
                    /**
                    * Predict class for features vector
                    */
                    int predict(float *x) {
                        uint8_t votes[2] = { 0 };
                        // tree #1
                        if (x[11] <= 81.02457427978516) {
                            if (x[25] <= 0.7732590436935425) {
                                if (x[15] <= -0.23541326075792313) {
                                    if (x[23] <= 0.9434713423252106) {
                                        votes[0] += 1;
                                    }

                                    else {
                                        if (x[106] <= 0.6647542119026184) {
                                            votes[0] += 1;
                                        }

                                        else {
                                            votes[1] += 1;
                                        }
                                    }
                                }

                                else {
                                    if (x[36] <= -0.32512079179286957) {
                                        if (x[2] <= 4.442523956298828) {
                                            votes[0] += 1;
                                        }

                                        else {
                                            if (x[27] <= 0.7972515225410461) {
                                                if (x[63] <= 0.4608978182077408) {
                                                    votes[1] += 1;
                                                }

                                                else {
                                                    votes[0] += 1;
                                                }
                                            }

                                            else {
                                                votes[1] += 1;
                                            }
                                        }
                                    }

                                    else {
                                        if (x[70] <= 0.09308059513568878) {
                                            if (x[113] <= 0.0051920295227319) {
                                                if (x[16] <= 1.1331542134284973) {
                                                    if (x[0] <= 0.3783305436372757) {
                                                        if (x[99] <= 0.8542848527431488) {
                                                            if (x[116] <= -0.016061052680015564) {
                                                                votes[1] += 1;
                                                            }

                                                            else {
                                                                votes[0] += 1;
                                                            }
                                                        }

                                                        else {
                                                            if (x[82] <= 5.5022178292274475) {
                                                                votes[0] += 1;
                                                            }

                                                            else {
                                                                votes[1] += 1;
                                                            }
                                                        }
                                                    }

                                                    else {
                                                        votes[1] += 1;
                                                    }
                                                }

                                                else {
                                                    if (x[29] <= 0.9901461005210876) {
                                                        votes[1] += 1;
                                                    }

                                                    else {
                                                        votes[0] += 1;
                                                    }
                                                }
                                            }

                                            else {
                                                votes[1] += 1;
                                            }
                                        }

                                        else {
                                            votes[1] += 1;
                                        }
                                    }
                                }
                            }

                            else {
                                if (x[122] <= -0.026304439641535282) {
                                    votes[0] += 1;
                                }

                                else {
                                    votes[1] += 1;
                                }
                            }
                        }

                        else {
                            if (x[116] <= 0.34481558203697205) {
                                votes[1] += 1;
                            }

                            else {
                                votes[0] += 1;
                            }
                        }

                        // tree #2
                        if (x[91] <= 0.846254974603653) {
                            if (x[4] <= -2.9731887578964233) {
                                if (x[97] <= 3.375047206878662) {
                                    votes[1] += 1;
                                }

                                else {
                                    votes[0] += 1;
                                }
                            }

                            else {
                                if (x[23] <= 0.8894312679767609) {
                                    if (x[53] <= 0.03351124934852123) {
                                        if (x[52] <= 1.7526306509971619) {
                                            votes[0] += 1;
                                        }

                                        else {
                                            votes[1] += 1;
                                        }
                                    }

                                    else {
                                        if (x[57] <= 0.03248027712106705) {
                                            if (x[120] <= 0.06548317521810532) {
                                                votes[0] += 1;
                                            }

                                            else {
                                                if (x[85] <= 0.021227567456662655) {
                                                    votes[1] += 1;
                                                }

                                                else {
                                                    votes[0] += 1;
                                                }
                                            }
                                        }

                                        else {
                                            votes[0] += 1;
                                        }
                                    }
                                }

                                else {
                                    if (x[59] <= 0.05128561705350876) {
                                        if (x[102] <= 0.5914015620946884) {
                                            votes[1] += 1;
                                        }

                                        else {
                                            votes[0] += 1;
                                        }
                                    }

                                    else {
                                        if (x[21] <= 0.7737650573253632) {
                                            votes[0] += 1;
                                        }

                                        else {
                                            votes[1] += 1;
                                        }
                                    }
                                }
                            }
                        }

                        else {
                            if (x[118] <= 0.13915617763996124) {
                                if (x[100] <= 0.25168976932764053) {
                                    if (x[17] <= 5.080606937408447) {
                                        if (x[35] <= -0.06970906257629395) {
                                            votes[1] += 1;
                                        }

                                        else {
                                            votes[0] += 1;
                                        }
                                    }

                                    else {
                                        if (x[112] <= 2.8559333086013794) {
                                            votes[0] += 1;
                                        }

                                        else {
                                            votes[1] += 1;
                                        }
                                    }
                                }

                                else {
                                    if (x[15] <= -0.13236098736524582) {
                                        votes[1] += 1;
                                    }

                                    else {
                                        votes[0] += 1;
                                    }
                                }
                            }

                            else {
                                if (x[19] <= -2.872959613800049) {
                                    votes[1] += 1;
                                }

                                else {
                                    votes[0] += 1;
                                }
                            }
                        }

                        // tree #3
                        if (x[98] <= 54.75469398498535) {
                            if (x[3] <= 3.5559738874435425) {
                                if (x[15] <= 0.156943678855896) {
                                    if (x[56] <= 2.5076018571853638) {
                                        if (x[119] <= 0.15832242369651794) {
                                            votes[0] += 1;
                                        }

                                        else {
                                            votes[1] += 1;
                                        }
                                    }

                                    else {
                                        if (x[89] <= 0.024701380170881748) {
                                            if (x[15] <= 0.0718349872622639) {
                                                votes[0] += 1;
                                            }

                                            else {
                                                votes[1] += 1;
                                            }
                                        }

                                        else {
                                            votes[0] += 1;
                                        }
                                    }
                                }

                                else {
                                    votes[1] += 1;
                                }
                            }

                            else {
                                votes[1] += 1;
                            }
                        }

                        else {
                            if (x[96] <= 1.5052677392959595) {
                                if (x[94] <= 3.8300143480300903) {
                                    if (x[60] <= 0.009388234931975603) {
                                        if (x[119] <= -0.052435144782066345) {
                                            if (x[11] <= 66.68429946899414) {
                                                votes[0] += 1;
                                            }

                                            else {
                                                votes[1] += 1;
                                            }
                                        }

                                        else {
                                            votes[0] += 1;
                                        }
                                    }

                                    else {
                                        if (x[6] <= -0.5722572356462479) {
                                            votes[0] += 1;
                                        }

                                        else {
                                            votes[1] += 1;
                                        }
                                    }
                                }

                                else {
                                    if (x[78] <= 0.18440494686365128) {
                                        if (x[75] <= -0.0043295074719935656) {
                                            if (x[15] <= 0.01787090627476573) {
                                                votes[0] += 1;
                                            }

                                            else {
                                                votes[1] += 1;
                                            }
                                        }

                                        else {
                                            votes[0] += 1;
                                        }
                                    }

                                    else {
                                        if (x[25] <= 0.10665484145283699) {
                                            if (x[29] <= 0.8092634677886963) {
                                                votes[0] += 1;
                                            }

                                            else {
                                                votes[1] += 1;
                                            }
                                        }

                                        else {
                                            votes[1] += 1;
                                        }
                                    }
                                }
                            }

                            else {
                                if (x[24] <= -0.7093999981880188) {
                                    if (x[95] <= 1.8464549779891968) {
                                        votes[1] += 1;
                                    }

                                    else {
                                        votes[0] += 1;
                                    }
                                }

                                else {
                                    votes[0] += 1;
                                }
                            }
                        }

                        // tree #4
                        if (x[23] <= 1.0831413269042969) {
                            if (x[2] <= 5.959249019622803) {
                                if (x[82] <= 35.34649848937988) {
                                    if (x[16] <= 0.8175028860569) {
                                        votes[0] += 1;
                                    }

                                    else {
                                        if (x[14] <= 0.7361163198947906) {
                                            votes[1] += 1;
                                        }

                                        else {
                                            if (x[117] <= -0.34667280316352844) {
                                                votes[1] += 1;
                                            }

                                            else {
                                                if (x[42] <= 1.0335867404937744) {
                                                    if (x[67] <= -0.04134798818267882) {
                                                        if (x[23] <= 0.9622374176979065) {
                                                            votes[0] += 1;
                                                        }

                                                        else {
                                                            votes[1] += 1;
                                                        }
                                                    }

                                                    else {
                                                        if (x[77] <= 1.2336423993110657) {
                                                            votes[0] += 1;
                                                        }

                                                        else {
                                                            votes[1] += 1;
                                                        }
                                                    }
                                                }

                                                else {
                                                    votes[1] += 1;
                                                }
                                            }
                                        }
                                    }
                                }

                                else {
                                    if (x[75] <= -0.0006910413503646851) {
                                        votes[1] += 1;
                                    }

                                    else {
                                        votes[0] += 1;
                                    }
                                }
                            }

                            else {
                                if (x[22] <= 0.3802167773246765) {
                                    votes[1] += 1;
                                }

                                else {
                                    if (x[0] <= -0.24039580672979355) {
                                        votes[1] += 1;
                                    }

                                    else {
                                        votes[0] += 1;
                                    }
                                }
                            }
                        }

                        else {
                            if (x[79] <= -0.21479549258947372) {
                                votes[1] += 1;
                            }

                            else {
                                if (x[82] <= -0.3260122388601303) {
                                    votes[0] += 1;
                                }

                                else {
                                    votes[1] += 1;
                                }
                            }
                        }

                        // tree #5
                        if (x[32] <= 7.528984308242798) {
                            if (x[16] <= 1.046505331993103) {
                                if (x[116] <= 0.00044243596494197845) {
                                    votes[1] += 1;
                                }

                                else {
                                    if (x[1] <= 1.2814281582832336) {
                                        if (x[121] <= -0.10211874172091484) {
                                            if (x[118] <= 0.28197108022868633) {
                                                votes[1] += 1;
                                            }

                                            else {
                                                votes[0] += 1;
                                            }
                                        }

                                        else {
                                            if (x[57] <= 0.032515592873096466) {
                                                if (x[3] <= 2.060630679130554) {
                                                    votes[0] += 1;
                                                }

                                                else {
                                                    if (x[62] <= 0.45295658707618713) {
                                                        votes[0] += 1;
                                                    }

                                                    else {
                                                        votes[1] += 1;
                                                    }
                                                }
                                            }

                                            else {
                                                if (x[60] <= 0.01041907025501132) {
                                                    votes[0] += 1;
                                                }

                                                else {
                                                    if (x[5] <= -0.08775949478149414) {
                                                        if (x[109] <= 0.0626113023608923) {
                                                            votes[0] += 1;
                                                        }

                                                        else {
                                                            votes[1] += 1;
                                                        }
                                                    }

                                                    else {
                                                        votes[0] += 1;
                                                    }
                                                }
                                            }
                                        }
                                    }

                                    else {
                                        votes[1] += 1;
                                    }
                                }
                            }

                            else {
                                if (x[33] <= 4.493027210235596) {
                                    votes[1] += 1;
                                }

                                else {
                                    votes[0] += 1;
                                }
                            }
                        }

                        else {
                            if (x[98] <= 59.22796440124512) {
                                votes[0] += 1;
                            }

                            else {
                                votes[1] += 1;
                            }
                        }

                        // tree #6
                        if (x[13] <= 103.53121948242188) {
                            if (x[27] <= 0.7996956408023834) {
                                if (x[59] <= 0.03221734240651131) {
                                    votes[1] += 1;
                                }

                                else {
                                    if (x[20] <= -0.17160218209028244) {
                                        if (x[107] <= 13.780514240264893) {
                                            if (x[91] <= 0.8891120851039886) {
                                                votes[0] += 1;
                                            }

                                            else {
                                                votes[1] += 1;
                                            }
                                        }

                                        else {
                                            if (x[32] <= 6.9865806102752686) {
                                                votes[1] += 1;
                                            }

                                            else {
                                                votes[0] += 1;
                                            }
                                        }
                                    }

                                    else {
                                        if (x[59] <= 0.04320518299937248) {
                                            if (x[96] <= 0.7901211678981781) {
                                                votes[1] += 1;
                                            }

                                            else {
                                                votes[0] += 1;
                                            }
                                        }

                                        else {
                                            votes[0] += 1;
                                        }
                                    }
                                }
                            }

                            else {
                                if (x[0] <= 0.21501050144433975) {
                                    if (x[70] <= 0.08445211872458458) {
                                        votes[1] += 1;
                                    }

                                    else {
                                        votes[0] += 1;
                                    }
                                }

                                else {
                                    votes[0] += 1;
                                }
                            }
                        }

                        else {
                            if (x[24] <= -0.506441056728363) {
                                if (x[86] <= 2.795013904571533) {
                                    votes[0] += 1;
                                }

                                else {
                                    if (x[88] <= 3.3271450996398926) {
                                        votes[1] += 1;
                                    }

                                    else {
                                        if (x[117] <= -0.21857687085866928) {
                                            votes[0] += 1;
                                        }

                                        else {
                                            votes[1] += 1;
                                        }
                                    }
                                }
                            }

                            else {
                                votes[0] += 1;
                            }
                        }

                        // tree #7
                        if (x[100] <= 0.11050430312752724) {
                            if (x[17] <= 5.529705286026001) {
                                if (x[118] <= -0.11928587034344673) {
                                    if (x[88] <= 0.15490765124559402) {
                                        votes[1] += 1;
                                    }

                                    else {
                                        votes[0] += 1;
                                    }
                                }

                                else {
                                    votes[0] += 1;
                                }
                            }

                            else {
                                votes[1] += 1;
                            }
                        }

                        else {
                            if (x[18] <= 1.8739900588989258) {
                                if (x[2] <= 6.0692455768585205) {
                                    votes[0] += 1;
                                }

                                else {
                                    votes[1] += 1;
                                }
                            }

                            else {
                                if (x[95] <= 1.7655535340309143) {
                                    if (x[47] <= 0.282219722867012) {
                                        if (x[63] <= 0.3839288055896759) {
                                            votes[1] += 1;
                                        }

                                        else {
                                            if (x[59] <= 0.050357719883322716) {
                                                votes[1] += 1;
                                            }

                                            else {
                                                votes[0] += 1;
                                            }
                                        }
                                    }

                                    else {
                                        if (x[60] <= 0.012060770764946938) {
                                            if (x[35] <= 0.1533796787261963) {
                                                votes[0] += 1;
                                            }

                                            else {
                                                votes[1] += 1;
                                            }
                                        }

                                        else {
                                            if (x[122] <= 0.4076046049594879) {
                                                votes[1] += 1;
                                            }

                                            else {
                                                votes[0] += 1;
                                            }
                                        }
                                    }
                                }

                                else {
                                    if (x[33] <= 4.547451972961426) {
                                        if (x[100] <= 0.11262358725070953) {
                                            if (x[114] <= 0.09621404856443405) {
                                                votes[1] += 1;
                                            }

                                            else {
                                                votes[0] += 1;
                                            }
                                        }

                                        else {
                                            if (x[74] <= 0.17162606865167618) {
                                                if (x[47] <= 0.2922990173101425) {
                                                    if (x[55] <= 0.03039054572582245) {
                                                        votes[1] += 1;
                                                    }

                                                    else {
                                                        votes[0] += 1;
                                                    }
                                                }

                                                else {
                                                    votes[1] += 1;
                                                }
                                            }

                                            else {
                                                if (x[83] <= 0.25627458095550537) {
                                                    votes[0] += 1;
                                                }

                                                else {
                                                    votes[1] += 1;
                                                }
                                            }
                                        }
                                    }

                                    else {
                                        if (x[38] <= 1.1064938306808472) {
                                            votes[1] += 1;
                                        }

                                        else {
                                            votes[0] += 1;
                                        }
                                    }
                                }
                            }
                        }

                        // tree #8
                        if (x[90] <= 1.6705054640769958) {
                            if (x[27] <= 0.6861849129199982) {
                                if (x[21] <= 0.3901991993188858) {
                                    votes[0] += 1;
                                }

                                else {
                                    if (x[48] <= 0.09728028997778893) {
                                        votes[1] += 1;
                                    }

                                    else {
                                        votes[0] += 1;
                                    }
                                }
                            }

                            else {
                                if (x[28] <= 82.57681655883789) {
                                    votes[1] += 1;
                                }

                                else {
                                    if (x[121] <= -0.03523893840610981) {
                                        votes[1] += 1;
                                    }

                                    else {
                                        if (x[13] <= 106.76747512817383) {
                                            if (x[27] <= 0.8249040246009827) {
                                                votes[0] += 1;
                                            }

                                            else {
                                                if (x[118] <= 0.06892107054591179) {
                                                    votes[1] += 1;
                                                }

                                                else {
                                                    votes[0] += 1;
                                                }
                                            }
                                        }

                                        else {
                                            if (x[96] <= 1.499243974685669) {
                                                votes[1] += 1;
                                            }

                                            else {
                                                votes[0] += 1;
                                            }
                                        }
                                    }
                                }
                            }
                        }

                        else {
                            if (x[47] <= 0.2522873505949974) {
                                votes[0] += 1;
                            }

                            else {
                                votes[1] += 1;
                            }
                        }

                        // tree #9
                        if (x[17] <= 5.080606937408447) {
                            if (x[4] <= -2.9731887578964233) {
                                if (x[110] <= 0.014347435208037496) {
                                    votes[1] += 1;
                                }

                                else {
                                    votes[0] += 1;
                                }
                            }

                            else {
                                if (x[27] <= 0.6858187019824982) {
                                    votes[0] += 1;
                                }

                                else {
                                    if (x[21] <= 0.3029725104570389) {
                                        votes[0] += 1;
                                    }

                                    else {
                                        votes[1] += 1;
                                    }
                                }
                            }
                        }

                        else {
                            if (x[77] <= 0.3839288204908371) {
                                if (x[107] <= 0.9296422302722931) {
                                    if (x[112] <= 2.380576014518738) {
                                        votes[0] += 1;
                                    }

                                    else {
                                        votes[1] += 1;
                                    }
                                }

                                else {
                                    if (x[25] <= 0.5573188662528992) {
                                        votes[0] += 1;
                                    }

                                    else {
                                        votes[1] += 1;
                                    }
                                }
                            }

                            else {
                                if (x[91] <= 0.8260717391967773) {
                                    if (x[118] <= -0.108919657766819) {
                                        votes[0] += 1;
                                    }

                                    else {
                                        votes[1] += 1;
                                    }
                                }

                                else {
                                    if (x[121] <= 0.34798814356327057) {
                                        if (x[20] <= 0.11943955346941948) {
                                            votes[1] += 1;
                                        }

                                        else {
                                            votes[0] += 1;
                                        }
                                    }

                                    else {
                                        if (x[24] <= -0.8404384255409241) {
                                            votes[1] += 1;
                                        }

                                        else {
                                            votes[0] += 1;
                                        }
                                    }
                                }
                            }
                        }

                        // tree #10
                        if (x[1] <= 1.0879732966423035) {
                            if (x[92] <= 4.095496892929077) {
                                if (x[46] <= 0.03305734694004059) {
                                    if (x[7] <= 0.9750515520572662) {
                                        votes[1] += 1;
                                    }

                                    else {
                                        votes[0] += 1;
                                    }
                                }

                                else {
                                    if (x[102] <= 0.9699671566486359) {
                                        if (x[65] <= 0.014049900695681572) {
                                            if (x[59] <= 0.040692130103707314) {
                                                if (x[43] <= 80.91759490966797) {
                                                    votes[0] += 1;
                                                }

                                                else {
                                                    votes[1] += 1;
                                                }
                                            }

                                            else {
                                                votes[0] += 1;
                                            }
                                        }

                                        else {
                                            if (x[15] <= -0.02307663857936859) {
                                                votes[0] += 1;
                                            }

                                            else {
                                                votes[1] += 1;
                                            }
                                        }
                                    }

                                    else {
                                        votes[1] += 1;
                                    }
                                }
                            }

                            else {
                                if (x[36] <= 0.7451148331165314) {
                                    if (x[76] <= 0.056992337107658386) {
                                        if (x[61] <= 0.13318339735269547) {
                                            votes[0] += 1;
                                        }

                                        else {
                                            votes[1] += 1;
                                        }
                                    }

                                    else {
                                        if (x[61] <= 0.23560169339179993) {
                                            votes[1] += 1;
                                        }

                                        else {
                                            votes[0] += 1;
                                        }
                                    }
                                }

                                else {
                                    if (x[120] <= 0.24736005067825317) {
                                        if (x[19] <= -3.4509384632110596) {
                                            votes[1] += 1;
                                        }

                                        else {
                                            votes[0] += 1;
                                        }
                                    }

                                    else {
                                        votes[1] += 1;
                                    }
                                }
                            }
                        }

                        else {
                            if (x[94] <= 3.787982225418091) {
                                if (x[12] <= 1.0408979058265686) {
                                    votes[0] += 1;
                                }

                                else {
                                    votes[1] += 1;
                                }
                            }

                            else {
                                votes[1] += 1;
                            }
                        }

                        // tree #11
                        if (x[99] <= 0.6648046374320984) {
                            if (x[54] <= -0.014431691728532314) {
                                votes[0] += 1;
                            }

                            else {
                                if (x[118] <= -0.11968667432665825) {
                                    votes[1] += 1;
                                }

                                else {
                                    votes[0] += 1;
                                }
                            }
                        }

                        else {
                            if (x[95] <= 1.92044335603714) {
                                if (x[116] <= 0.2598531097173691) {
                                    if (x[103] <= 0.008424553088843822) {
                                        if (x[115] <= 1.0080311298370361) {
                                            votes[1] += 1;
                                        }

                                        else {
                                            votes[0] += 1;
                                        }
                                    }

                                    else {
                                        if (x[112] <= 1.991127371788025) {
                                            votes[1] += 1;
                                        }

                                        else {
                                            if (x[35] <= 0.12895822525024414) {
                                                if (x[32] <= 7.578715085983276) {
                                                    votes[0] += 1;
                                                }

                                                else {
                                                    if (x[120] <= 0.18079515546560287) {
                                                        votes[1] += 1;
                                                    }

                                                    else {
                                                        votes[0] += 1;
                                                    }
                                                }
                                            }

                                            else {
                                                if (x[14] <= 0.8397278189659119) {
                                                    votes[0] += 1;
                                                }

                                                else {
                                                    votes[1] += 1;
                                                }
                                            }
                                        }
                                    }
                                }

                                else {
                                    if (x[88] <= 2.0831979513168335) {
                                        if (x[107] <= 35.42225170135498) {
                                            votes[0] += 1;
                                        }

                                        else {
                                            votes[1] += 1;
                                        }
                                    }

                                    else {
                                        votes[1] += 1;
                                    }
                                }
                            }

                            else {
                                votes[1] += 1;
                            }
                        }

                        // tree #12
                        if (x[34] <= -2.8255839347839355) {
                            if (x[90] <= 1.3978267312049866) {
                                votes[0] += 1;
                            }

                            else {
                                if (x[16] <= 1.046505331993103) {
                                    if (x[38] <= 1.154135525226593) {
                                        if (x[63] <= 0.4608978182077408) {
                                            votes[1] += 1;
                                        }

                                        else {
                                            votes[0] += 1;
                                        }
                                    }

                                    else {
                                        if (x[67] <= -0.022106671705842018) {
                                            if (x[31] <= 1.2223409414291382) {
                                                votes[0] += 1;
                                            }

                                            else {
                                                votes[1] += 1;
                                            }
                                        }

                                        else {
                                            votes[0] += 1;
                                        }
                                    }
                                }

                                else {
                                    votes[1] += 1;
                                }
                            }
                        }

                        else {
                            if (x[18] <= 3.331615686416626) {
                                if (x[57] <= 0.02458436693996191) {
                                    if (x[116] <= 0.3091900944709778) {
                                        votes[1] += 1;
                                    }

                                    else {
                                        votes[0] += 1;
                                    }
                                }

                                else {
                                    if (x[55] <= 0.015424347948282957) {
                                        votes[1] += 1;
                                    }

                                    else {
                                        if (x[23] <= 1.1066349148750305) {
                                            if (x[111] <= 1.1480768918991089) {
                                                if (x[12] <= 0.9222447276115417) {
                                                    if (x[78] <= 0.09949467703700066) {
                                                        if (x[70] <= 0.05826127156615257) {
                                                            votes[0] += 1;
                                                        }

                                                        else {
                                                            votes[1] += 1;
                                                        }
                                                    }

                                                    else {
                                                        votes[0] += 1;
                                                    }
                                                }

                                                else {
                                                    votes[1] += 1;
                                                }
                                            }

                                            else {
                                                votes[1] += 1;
                                            }
                                        }

                                        else {
                                            if (x[5] <= 0.10465657711029053) {
                                                votes[1] += 1;
                                            }

                                            else {
                                                votes[0] += 1;
                                            }
                                        }
                                    }
                                }
                            }

                            else {
                                if (x[120] <= -0.09666656330227852) {
                                    votes[0] += 1;
                                }

                                else {
                                    votes[1] += 1;
                                }
                            }
                        }

                        // tree #13
                        if (x[90] <= 1.6007143259048462) {
                            if (x[25] <= 0.2210233062505722) {
                                if (x[101] <= 0.05958511680364609) {
                                    votes[1] += 1;
                                }

                                else {
                                    votes[0] += 1;
                                }
                            }

                            else {
                                if (x[56] <= 2.415055751800537) {
                                    votes[1] += 1;
                                }

                                else {
                                    if (x[15] <= -0.2568504810333252) {
                                        if (x[90] <= 1.3982954621315002) {
                                            votes[0] += 1;
                                        }

                                        else {
                                            votes[1] += 1;
                                        }
                                    }

                                    else {
                                        if (x[106] <= 5.103072166442871) {
                                            if (x[20] <= -0.189048171043396) {
                                                if (x[85] <= 0.03550654277205467) {
                                                    if (x[66] <= 0.5265234112739563) {
                                                        votes[1] += 1;
                                                    }

                                                    else {
                                                        votes[0] += 1;
                                                    }
                                                }

                                                else {
                                                    votes[0] += 1;
                                                }
                                            }

                                            else {
                                                if (x[24] <= -0.7046688795089722) {
                                                    if (x[21] <= -0.3391687721014023) {
                                                        votes[0] += 1;
                                                    }

                                                    else {
                                                        votes[1] += 1;
                                                    }
                                                }

                                                else {
                                                    if (x[117] <= -0.23628482967615128) {
                                                        if (x[117] <= -0.24429963529109955) {
                                                            votes[0] += 1;
                                                        }

                                                        else {
                                                            votes[1] += 1;
                                                        }
                                                    }

                                                    else {
                                                        votes[0] += 1;
                                                    }
                                                }
                                            }
                                        }

                                        else {
                                            votes[1] += 1;
                                        }
                                    }
                                }
                            }
                        }

                        else {
                            if (x[67] <= 0.6376201212406158) {
                                if (x[21] <= -0.020307831466197968) {
                                    votes[1] += 1;
                                }

                                else {
                                    if (x[119] <= -0.060526289977133274) {
                                        votes[1] += 1;
                                    }

                                    else {
                                        votes[0] += 1;
                                    }
                                }
                            }

                            else {
                                if (x[27] <= 0.6553452610969543) {
                                    if (x[26] <= 67.14578628540039) {
                                        votes[1] += 1;
                                    }

                                    else {
                                        votes[0] += 1;
                                    }
                                }

                                else {
                                    votes[1] += 1;
                                }
                            }
                        }

                        // tree #14
                        if (x[90] <= 1.5693209767341614) {
                            if (x[104] <= 0.889147937297821) {
                                if (x[56] <= 2.5451700687408447) {
                                    if (x[89] <= 0.041051692329347134) {
                                        votes[1] += 1;
                                    }

                                    else {
                                        votes[0] += 1;
                                    }
                                }

                                else {
                                    if (x[103] <= 0.004752399516291916) {
                                        votes[1] += 1;
                                    }

                                    else {
                                        if (x[25] <= 0.11420534923672676) {
                                            votes[1] += 1;
                                        }

                                        else {
                                            if (x[23] <= 1.0415999293327332) {
                                                if (x[23] <= 0.869176834821701) {
                                                    votes[0] += 1;
                                                }

                                                else {
                                                    if (x[88] <= 0.11595646664500237) {
                                                        votes[1] += 1;
                                                    }

                                                    else {
                                                        votes[0] += 1;
                                                    }
                                                }
                                            }

                                            else {
                                                votes[1] += 1;
                                            }
                                        }
                                    }
                                }
                            }

                            else {
                                if (x[47] <= 0.34605515003204346) {
                                    votes[1] += 1;
                                }

                                else {
                                    if (x[19] <= -3.0452576875686646) {
                                        votes[1] += 1;
                                    }

                                    else {
                                        votes[0] += 1;
                                    }
                                }
                            }
                        }

                        else {
                            if (x[30] <= 0.20520755648612976) {
                                if (x[95] <= 1.9031310677528381) {
                                    if (x[111] <= 1.0331604778766632) {
                                        votes[1] += 1;
                                    }

                                    else {
                                        if (x[63] <= 0.3371976166963577) {
                                            votes[1] += 1;
                                        }

                                        else {
                                            votes[0] += 1;
                                        }
                                    }
                                }

                                else {
                                    votes[1] += 1;
                                }
                            }

                            else {
                                votes[0] += 1;
                            }
                        }

                        // tree #15
                        if (x[99] <= 0.8331435024738312) {
                            if (x[27] <= 0.6840210556983948) {
                                if (x[56] <= 2.537839651107788) {
                                    votes[1] += 1;
                                }

                                else {
                                    votes[0] += 1;
                                }
                            }

                            else {
                                if (x[121] <= -0.029715867713093758) {
                                    votes[1] += 1;
                                }

                                else {
                                    if (x[54] <= -0.015653421636670828) {
                                        if (x[16] <= 1.0548713207244873) {
                                            if (x[5] <= 0.18537873029708862) {
                                                if (x[32] <= 4.320466041564941) {
                                                    votes[1] += 1;
                                                }

                                                else {
                                                    if (x[60] <= 0.010877219494432211) {
                                                        votes[0] += 1;
                                                    }

                                                    else {
                                                        if (x[14] <= 0.8743482232093811) {
                                                            votes[0] += 1;
                                                        }

                                                        else {
                                                            votes[1] += 1;
                                                        }
                                                    }
                                                }
                                            }

                                            else {
                                                votes[1] += 1;
                                            }
                                        }

                                        else {
                                            if (x[0] <= 0.1672772616147995) {
                                                votes[1] += 1;
                                            }

                                            else {
                                                votes[0] += 1;
                                            }
                                        }
                                    }

                                    else {
                                        votes[1] += 1;
                                    }
                                }
                            }
                        }

                        else {
                            if (x[77] <= 0.3692680448293686) {
                                if (x[66] <= -0.7004485428333282) {
                                    votes[1] += 1;
                                }

                                else {
                                    votes[0] += 1;
                                }
                            }

                            else {
                                if (x[24] <= -0.4311351478099823) {
                                    votes[1] += 1;
                                }

                                else {
                                    votes[0] += 1;
                                }
                            }
                        }

                        // tree #16
                        if (x[86] <= 3.789197087287903) {
                            if (x[68] <= 0.12916921824216843) {
                                if (x[27] <= 0.689340204000473) {
                                    if (x[54] <= -0.011071932502090931) {
                                        votes[0] += 1;
                                    }

                                    else {
                                        if (x[32] <= 4.078822612762451) {
                                            votes[0] += 1;
                                        }

                                        else {
                                            votes[1] += 1;
                                        }
                                    }
                                }

                                else {
                                    if (x[26] <= 73.16802597045898) {
                                        votes[1] += 1;
                                    }

                                    else {
                                        votes[0] += 1;
                                    }
                                }
                            }

                            else {
                                if (x[76] <= 0.07886083796620369) {
                                    if (x[109] <= 0.08707891777157784) {
                                        votes[1] += 1;
                                    }

                                    else {
                                        votes[0] += 1;
                                    }
                                }

                                else {
                                    votes[0] += 1;
                                }
                            }
                        }

                        else {
                            if (x[1] <= 1.204755961894989) {
                                if (x[95] <= 1.6579493880271912) {
                                    if (x[35] <= -0.15050601959228516) {
                                        votes[1] += 1;
                                    }

                                    else {
                                        votes[0] += 1;
                                    }
                                }

                                else {
                                    if (x[23] <= 1.084092140197754) {
                                        if (x[40] <= 0.5434706211090088) {
                                            if (x[26] <= 69.82604026794434) {
                                                votes[1] += 1;
                                            }

                                            else {
                                                votes[0] += 1;
                                            }
                                        }

                                        else {
                                            if (x[90] <= 1.739658236503601) {
                                                votes[0] += 1;
                                            }

                                            else {
                                                votes[1] += 1;
                                            }
                                        }
                                    }

                                    else {
                                        if (x[80] <= 0.016875152476131916) {
                                            votes[1] += 1;
                                        }

                                        else {
                                            if (x[52] <= 2.345814675092697) {
                                                votes[0] += 1;
                                            }

                                            else {
                                                votes[1] += 1;
                                            }
                                        }
                                    }
                                }
                            }

                            else {
                                votes[1] += 1;
                            }
                        }

                        // tree #17
                        if (x[8] <= 1.197924256324768) {
                            if (x[27] <= 0.7142955660820007) {
                                if (x[23] <= 0.8668717741966248) {
                                    if (x[100] <= 0.0793573446571827) {
                                        if (x[63] <= 0.2617557570338249) {
                                            votes[0] += 1;
                                        }

                                        else {
                                            votes[1] += 1;
                                        }
                                    }

                                    else {
                                        votes[0] += 1;
                                    }
                                }

                                else {
                                    if (x[56] <= 3.5173619985580444) {
                                        votes[1] += 1;
                                    }

                                    else {
                                        if (x[39] <= -0.7220993041992188) {
                                            votes[1] += 1;
                                        }

                                        else {
                                            votes[0] += 1;
                                        }
                                    }
                                }
                            }

                            else {
                                if (x[82] <= 0.6940198540687561) {
                                    if (x[55] <= 0.0264962799847126) {
                                        votes[1] += 1;
                                    }

                                    else {
                                        votes[0] += 1;
                                    }
                                }

                                else {
                                    if (x[90] <= 1.4002745747566223) {
                                        if (x[104] <= 0.5355785042047501) {
                                            votes[1] += 1;
                                        }

                                        else {
                                            votes[0] += 1;
                                        }
                                    }

                                    else {
                                        if (x[18] <= 1.853296935558319) {
                                            votes[0] += 1;
                                        }

                                        else {
                                            if (x[70] <= 0.03718642331659794) {
                                                votes[0] += 1;
                                            }

                                            else {
                                                if (x[72] <= 0.13022024184465408) {
                                                    votes[1] += 1;
                                                }

                                                else {
                                                    votes[0] += 1;
                                                }
                                            }
                                        }
                                    }
                                }
                            }
                        }

                        else {
                            votes[1] += 1;
                        }

                        // tree #18
                        if (x[4] <= -2.9731887578964233) {
                            if (x[73] <= 12.639966011047363) {
                                votes[1] += 1;
                            }

                            else {
                                votes[0] += 1;
                            }
                        }

                        else {
                            if (x[27] <= 0.8014607727527618) {
                                if (x[86] <= 8.969639778137207) {
                                    if (x[103] <= 0.004752399516291916) {
                                        votes[1] += 1;
                                    }

                                    else {
                                        if (x[107] <= 37.26005744934082) {
                                            if (x[53] <= 0.03481840528547764) {
                                                if (x[40] <= 0.37719929218292236) {
                                                    votes[0] += 1;
                                                }

                                                else {
                                                    votes[1] += 1;
                                                }
                                            }

                                            else {
                                                votes[0] += 1;
                                            }
                                        }

                                        else {
                                            votes[1] += 1;
                                        }
                                    }
                                }

                                else {
                                    votes[1] += 1;
                                }
                            }

                            else {
                                if (x[74] <= 0.1292598620057106) {
                                    votes[1] += 1;
                                }

                                else {
                                    if (x[82] <= 0.42009610682725906) {
                                        votes[0] += 1;
                                    }

                                    else {
                                        if (x[73] <= 8.817929744720459) {
                                            votes[1] += 1;
                                        }

                                        else {
                                            votes[0] += 1;
                                        }
                                    }
                                }
                            }
                        }

                        // tree #19
                        if (x[92] <= 4.095496892929077) {
                            if (x[25] <= 0.7732590436935425) {
                                if (x[55] <= 0.015424347948282957) {
                                    votes[1] += 1;
                                }

                                else {
                                    if (x[90] <= 1.6712857484817505) {
                                        if (x[47] <= 0.20647244900465012) {
                                            if (x[109] <= 0.055348115041852) {
                                                votes[0] += 1;
                                            }

                                            else {
                                                votes[1] += 1;
                                            }
                                        }

                                        else {
                                            votes[0] += 1;
                                        }
                                    }

                                    else {
                                        votes[1] += 1;
                                    }
                                }
                            }

                            else {
                                if (x[44] <= 0.9695837795734406) {
                                    votes[0] += 1;
                                }

                                else {
                                    votes[1] += 1;
                                }
                            }
                        }

                        else {
                            if (x[27] <= 0.6856271624565125) {
                                votes[0] += 1;
                            }

                            else {
                                if (x[77] <= 0.3839288204908371) {
                                    if (x[4] <= -1.7570518255233765) {
                                        votes[0] += 1;
                                    }

                                    else {
                                        votes[1] += 1;
                                    }
                                }

                                else {
                                    if (x[71] <= 14.068226337432861) {
                                        if (x[67] <= 10.067614078521729) {
                                            votes[1] += 1;
                                        }

                                        else {
                                            if (x[14] <= 0.8417622447013855) {
                                                votes[1] += 1;
                                            }

                                            else {
                                                votes[0] += 1;
                                            }
                                        }
                                    }

                                    else {
                                        votes[0] += 1;
                                    }
                                }
                            }
                        }

                        // tree #20
                        if (x[27] <= 0.6852609515190125) {
                            if (x[12] <= 1.0895612835884094) {
                                votes[0] += 1;
                            }

                            else {
                                votes[1] += 1;
                            }
                        }

                        else {
                            if (x[23] <= 1.0831413269042969) {
                                if (x[26] <= 71.7374038696289) {
                                    if (x[66] <= 1.0750436186790466) {
                                        if (x[101] <= 0.05984658747911453) {
                                            votes[0] += 1;
                                        }

                                        else {
                                            votes[1] += 1;
                                        }
                                    }

                                    else {
                                        votes[0] += 1;
                                    }
                                }

                                else {
                                    if (x[93] <= 0.4038519412279129) {
                                        if (x[87] <= 0.17958102375268936) {
                                            votes[0] += 1;
                                        }

                                        else {
                                            votes[1] += 1;
                                        }
                                    }

                                    else {
                                        votes[1] += 1;
                                    }
                                }
                            }

                            else {
                                if (x[103] <= 0.03151885140687227) {
                                    if (x[34] <= -2.2998597621917725) {
                                        votes[1] += 1;
                                    }

                                    else {
                                        if (x[42] <= 0.8331059515476227) {
                                            votes[1] += 1;
                                        }

                                        else {
                                            votes[0] += 1;
                                        }
                                    }
                                }

                                else {
                                    if (x[29] <= 1.0479662120342255) {
                                        votes[1] += 1;
                                    }

                                    else {
                                        votes[0] += 1;
                                    }
                                }
                            }
                        }

                        // tree #21
                        if (x[19] <= -2.903321862220764) {
                            if (x[94] <= 3.8300143480300903) {
                                if (x[63] <= 0.339335635304451) {
                                    votes[1] += 1;
                                }

                                else {
                                    votes[0] += 1;
                                }
                            }

                            else {
                                if (x[103] <= 0.027030110359191895) {
                                    votes[1] += 1;
                                }

                                else {
                                    if (x[40] <= 0.6978722810745239) {
                                        votes[0] += 1;
                                    }

                                    else {
                                        votes[1] += 1;
                                    }
                                }
                            }
                        }

                        else {
                            if (x[70] <= 0.08414668589830399) {
                                if (x[25] <= 0.7732590436935425) {
                                    if (x[22] <= -0.24561289697885513) {
                                        if (x[30] <= -0.01639990322291851) {
                                            votes[1] += 1;
                                        }

                                        else {
                                            votes[0] += 1;
                                        }
                                    }

                                    else {
                                        if (x[23] <= 1.0699744522571564) {
                                            if (x[5] <= 0.420894056558609) {
                                                if (x[86] <= 2.364353895187378) {
                                                    if (x[58] <= 0.1624976471066475) {
                                                        votes[1] += 1;
                                                    }

                                                    else {
                                                        votes[0] += 1;
                                                    }
                                                }

                                                else {
                                                    if (x[121] <= -0.003294692374765873) {
                                                        if (x[40] <= 0.40023767948150635) {
                                                            votes[1] += 1;
                                                        }

                                                        else {
                                                            votes[0] += 1;
                                                        }
                                                    }

                                                    else {
                                                        votes[0] += 1;
                                                    }
                                                }
                                            }

                                            else {
                                                votes[1] += 1;
                                            }
                                        }

                                        else {
                                            votes[1] += 1;
                                        }
                                    }
                                }

                                else {
                                    votes[1] += 1;
                                }
                            }

                            else {
                                votes[1] += 1;
                            }
                        }

                        // tree #22
                        if (x[11] <= 69.34841537475586) {
                            if (x[91] <= 0.898174911737442) {
                                if (x[121] <= -0.07873163372278214) {
                                    if (x[14] <= 0.7624908685684204) {
                                        votes[0] += 1;
                                    }

                                    else {
                                        votes[1] += 1;
                                    }
                                }

                                else {
                                    if (x[56] <= 2.5451700687408447) {
                                        votes[1] += 1;
                                    }

                                    else {
                                        if (x[67] <= -0.3501970171928406) {
                                            if (x[103] <= 0.010007382836192846) {
                                                votes[1] += 1;
                                            }

                                            else {
                                                votes[0] += 1;
                                            }
                                        }

                                        else {
                                            if (x[95] <= 1.9520641565322876) {
                                                if (x[117] <= -0.21289200335741043) {
                                                    if (x[11] <= 65.08539009094238) {
                                                        if (x[15] <= 0.09858880937099457) {
                                                            votes[0] += 1;
                                                        }

                                                        else {
                                                            votes[1] += 1;
                                                        }
                                                    }

                                                    else {
                                                        votes[1] += 1;
                                                    }
                                                }

                                                else {
                                                    votes[0] += 1;
                                                }
                                            }

                                            else {
                                                votes[1] += 1;
                                            }
                                        }
                                    }
                                }
                            }

                            else {
                                if (x[24] <= -0.6895354092121124) {
                                    votes[1] += 1;
                                }

                                else {
                                    votes[0] += 1;
                                }
                            }
                        }

                        else {
                            if (x[117] <= -0.046947015449404716) {
                                if (x[50] <= 0.018631390295922756) {
                                    votes[1] += 1;
                                }

                                else {
                                    if (x[121] <= 0.3875749409198761) {
                                        votes[0] += 1;
                                    }

                                    else {
                                        votes[1] += 1;
                                    }
                                }
                            }

                            else {
                                if (x[77] <= 0.3194825202226639) {
                                    votes[0] += 1;
                                }

                                else {
                                    if (x[17] <= 5.213301181793213) {
                                        votes[0] += 1;
                                    }

                                    else {
                                        if (x[36] <= 0.6026690751314163) {
                                            votes[1] += 1;
                                        }

                                        else {
                                            votes[0] += 1;
                                        }
                                    }
                                }
                            }
                        }

                        // tree #23
                        if (x[16] <= 0.9528316259384155) {
                            if (x[90] <= 1.825394868850708) {
                                if (x[91] <= 0.9518332183361053) {
                                    if (x[60] <= 0.0046922084875404835) {
                                        votes[0] += 1;
                                    }

                                    else {
                                        if (x[56] <= 3.564093232154846) {
                                            if (x[96] <= 0.9591951370239258) {
                                                votes[1] += 1;
                                            }

                                            else {
                                                votes[0] += 1;
                                            }
                                        }

                                        else {
                                            votes[0] += 1;
                                        }
                                    }
                                }

                                else {
                                    votes[1] += 1;
                                }
                            }

                            else {
                                votes[1] += 1;
                            }
                        }

                        else {
                            if (x[4] <= -2.788895010948181) {
                                votes[1] += 1;
                            }

                            else {
                                if (x[29] <= 0.9302586019039154) {
                                    if (x[41] <= 72.05611801147461) {
                                        votes[0] += 1;
                                    }

                                    else {
                                        votes[1] += 1;
                                    }
                                }

                                else {
                                    if (x[45] <= -0.005810855887830257) {
                                        votes[1] += 1;
                                    }

                                    else {
                                        if (x[43] <= 276.1468505859375) {
                                            votes[0] += 1;
                                        }

                                        else {
                                            votes[1] += 1;
                                        }
                                    }
                                }
                            }
                        }

                        // tree #24
                        if (x[99] <= 0.7984078526496887) {
                            if (x[91] <= 0.8578311204910278) {
                                if (x[95] <= 1.7067434191703796) {
                                    if (x[27] <= 0.6873623430728912) {
                                        if (x[56] <= 2.5076018571853638) {
                                            if (x[59] <= 0.031030407175421715) {
                                                votes[0] += 1;
                                            }

                                            else {
                                                votes[1] += 1;
                                            }
                                        }

                                        else {
                                            votes[0] += 1;
                                        }
                                    }

                                    else {
                                        if (x[78] <= 0.4806745946407318) {
                                            votes[1] += 1;
                                        }

                                        else {
                                            votes[0] += 1;
                                        }
                                    }
                                }

                                else {
                                    if (x[35] <= 0.1081545352935791) {
                                        if (x[11] <= 62.472429275512695) {
                                            votes[1] += 1;
                                        }

                                        else {
                                            votes[0] += 1;
                                        }
                                    }

                                    else {
                                        votes[1] += 1;
                                    }
                                }
                            }

                            else {
                                if (x[24] <= -0.6571642458438873) {
                                    votes[1] += 1;
                                }

                                else {
                                    votes[0] += 1;
                                }
                            }
                        }

                        else {
                            if (x[12] <= 0.7110817730426788) {
                                votes[0] += 1;
                            }

                            else {
                                if (x[34] <= -2.2998597621917725) {
                                    if (x[19] <= -1.7107454538345337) {
                                        if (x[7] <= -0.3718941658735275) {
                                            if (x[106] <= 1.4428960084915161) {
                                                votes[0] += 1;
                                            }

                                            else {
                                                votes[1] += 1;
                                            }
                                        }

                                        else {
                                            votes[1] += 1;
                                        }
                                    }

                                    else {
                                        votes[0] += 1;
                                    }
                                }

                                else {
                                    votes[0] += 1;
                                }
                            }
                        }

                        // tree #25
                        if (x[11] <= 71.92571640014648) {
                            if (x[16] <= 1.082477629184723) {
                                if (x[121] <= -0.10211874172091484) {
                                    if (x[21] <= 0.6085576117038727) {
                                        votes[1] += 1;
                                    }

                                    else {
                                        votes[0] += 1;
                                    }
                                }

                                else {
                                    if (x[116] <= -0.016061052680015564) {
                                        if (x[43] <= 135.2832145690918) {
                                            votes[1] += 1;
                                        }

                                        else {
                                            votes[0] += 1;
                                        }
                                    }

                                    else {
                                        if (x[105] <= 0.3403483033180237) {
                                            if (x[15] <= 0.1425221562385559) {
                                                votes[0] += 1;
                                            }

                                            else {
                                                if (x[67] <= 2.3250539302825928) {
                                                    votes[1] += 1;
                                                }

                                                else {
                                                    votes[0] += 1;
                                                }
                                            }
                                        }

                                        else {
                                            if (x[35] <= 0.027507543563842773) {
                                                votes[1] += 1;
                                            }

                                            else {
                                                votes[0] += 1;
                                            }
                                        }
                                    }
                                }
                            }

                            else {
                                if (x[28] <= 144.13998794555664) {
                                    votes[1] += 1;
                                }

                                else {
                                    votes[0] += 1;
                                }
                            }
                        }

                        else {
